<?xml version="1.0"?>
<opencv_storage>
<stage17>
  <maxWeakCount>5</maxWeakCount>
  <stageThreshold>1.6623656451702118e-01</stageThreshold>
  <weakClassifiers>
    <_>
      <internalNodes>
        0 -1 164251 4.8701614141464233e-02</internalNodes>
      <leafValues>
        8.7709498405456543e-01 -6.0000002384185791e-01</leafValues></_>
    <_>
      <internalNodes>
        0 -1 50 2.3103558924049139e-03</internalNodes>
      <leafValues>
        -3.8131460547447205e-01 9.0046608448028564e-01</leafValues></_>
    <_>
      <internalNodes>
        0 -1 226958 -2.3465923964977264e-02</internalNodes>
      <leafValues>
        8.9094513654708862e-01 -4.1527304053306580e-01</leafValues></_>
    <_>
      <internalNodes>
        0 -1 16059 3.2840043422766030e-04</internalNodes>
      <leafValues>
        -3.0390405654907227e-01 1.</leafValues></_>
    <_>
      <internalNodes>
        0 -1 51957 -1.4287981903180480e-03</internalNodes>
      <leafValues>
        -7.1895647048950195e-01 6.5121114253997803e-01</leafValues></_></weakClassifiers></stage17>
</opencv_storage>
